<?xml version="1.0"?>
<opencv_storage>
<cascade>
  <stageType>BOOST</stageType>
  <featureType>HAAR</featureType>
  <height>50</height>
  <width>50</width>
  <stageParams>
    <boostType>GAB</boostType>
    <minHitRate>9.9500000476837158e-01</minHitRate>
    <maxFalseAlarm>5.0000000000000000e-01</maxFalseAlarm>
    <weightTrimRate>9.4999999999999996e-01</weightTrimRate>
    <maxDepth>1</maxDepth>
    <maxWeakCount>100</maxWeakCount></stageParams>
  <featureParams>
    <maxCatCount>0</maxCatCount>
    <featSize>1</featSize>
    <mode>BASIC</mode></featureParams>
  <stageNum>14</stageNum>
  <stages>
    <!-- stage 0 -->
    <_>
      <maxWeakCount>1</maxWeakCount>
      <stageThreshold>9.2647057771682739e-01</stageThreshold>
      <weakClassifiers>
        <_>
          <internalNodes>
            0 -1 19 -8.9470073580741882e-03</internalNodes>
          <leafValues>
            9.2647057771682739e-01 -1.</leafValues></_></weakClassifiers></_>
    <!-- stage 1 -->
    <_>
      <maxWeakCount>1</maxWeakCount>
      <stageThreshold>9.2647057771682739e-01</stageThreshold>
      <weakClassifiers>
        <_>
          <internalNodes>
            0 -1 33 1.4999934472143650e-02</internalNodes>
          <leafValues>
            -1. 9.2647057771682739e-01</leafValues></_></weakClassifiers></_>
    <!-- stage 2 -->
    <_>
      <maxWeakCount>2</maxWeakCount>
      <stageThreshold>-1.2632489204406738e-01</stageThreshold>
      <weakClassifiers>
        <_>
          <internalNodes>
            0 -1 26 1.6972921788692474e-02</internalNodes>
          <leafValues>
            -9.2546582221984863e-01 8.5185188055038452e-01</leafValues></_>
        <_>
          <internalNodes>
            0 -1 17 2.5431441143155098e-02</internalNodes>
          <leafValues>
            -9.7817677259445190e-01 7.9956811666488647e-01</leafValues></_></weakClassifiers></_>
    <!-- stage 3 -->
    <_>
      <maxWeakCount>3</maxWeakCount>
      <stageThreshold>-1.1303037405014038e+00</stageThreshold>
      <weakClassifiers>
        <_>
          <internalNodes>
            0 -1 11 3.1580943614244461e-02</internalNodes>
          <leafValues>
            -9.0303027629852295e-01 8.7786257266998291e-01</leafValues></_>
        <_>
          <internalNodes>
            0 -1 16 -5.1962779834866524e-03</internalNodes>
          <leafValues>
            7.6171582937240601e-01 -8.7492841482162476e-01</leafValues></_>
        <_>
          <internalNodes>
            0 -1 37 2.4374914355576038e-03</internalNodes>
          <leafValues>
            -9.3603253364562988e-01 6.4765501022338867e-01</leafValues></_></weakClassifiers></_>
    <!-- stage 4 -->
    <_>
      <maxWeakCount>3</maxWeakCount>
      <stageThreshold>-1.0589624643325806e+00</stageThreshold>
      <weakClassifiers>
        <_>
          <internalNodes>
            0 -1 3 -6.0917638242244720e-02</internalNodes>
          <leafValues>
            8.8709676265716553e-01 -8.3720928430557251e-01</leafValues></_>
        <_>
          <internalNodes>
            0 -1 12 -2.6327792555093765e-02</internalNodes>
          <leafValues>
            7.4049741029739380e-01 -8.7289452552795410e-01</leafValues></_>
        <_>
          <internalNodes>
            0 -1 29 -1.9427527440711856e-03</internalNodes>
          <leafValues>
            6.5114140510559082e-01 -9.3216866254806519e-01</leafValues></_></weakClassifiers></_>
    <!-- stage 5 -->
    <_>
      <maxWeakCount>3</maxWeakCount>
      <stageThreshold>-9.1554361581802368e-01</stageThreshold>
      <weakClassifiers>
        <_>
          <internalNodes>
            0 -1 2 -1.1241091415286064e-02</internalNodes>
          <leafValues>
            8.3739835023880005e-01 -7.9190748929977417e-01</leafValues></_>
        <_>
          <internalNodes>
            0 -1 14 -2.8873246163129807e-02</internalNodes>
          <leafValues>
            8.0801552534103394e-01 -7.5551396608352661e-01</leafValues></_>
        <_>
          <internalNodes>
            0 -1 20 -8.2481559365987778e-03</internalNodes>
          <leafValues>
            6.3187789916992188e-01 -8.2981282472610474e-01</leafValues></_></weakClassifiers></_>
    <!-- stage 6 -->
    <_>
      <maxWeakCount>2</maxWeakCount>
      <stageThreshold>-2.7399080991744995e-01</stageThreshold>
      <weakClassifiers>
        <_>
          <internalNodes>
            0 -1 9 -4.9532037228345871e-02</internalNodes>
          <leafValues>
            7.7941179275512695e-01 -8.7500000000000000e-01</leafValues></_>
        <_>
          <internalNodes>
            0 -1 23 2.9250526800751686e-02</internalNodes>
          <leafValues>
            -8.6624026298522949e-01 6.0100919008255005e-01</leafValues></_></weakClassifiers></_>
    <!-- stage 7 -->
    <_>
      <maxWeakCount>3</maxWeakCount>
      <stageThreshold>-7.2220760583877563e-01</stageThreshold>
      <weakClassifiers>
        <_>
          <internalNodes>
            0 -1 10 3.5816740244626999e-02</internalNodes>
          <leafValues>
            -7.0967739820480347e-01 8.9090907573699951e-01</leafValues></_>
        <_>
          <internalNodes>
            0 -1 30 -3.3869822509586811e-03</internalNodes>
          <leafValues>
            7.2389703989028931e-01 -6.8872350454330444e-01</leafValues></_>
        <_>
          <internalNodes>
            0 -1 36 2.8040807694196701e-02</internalNodes>
          <leafValues>
            -7.3642724752426147e-01 7.9329013824462891e-01</leafValues></_></weakClassifiers></_>
    <!-- stage 8 -->
    <_>
      <maxWeakCount>4</maxWeakCount>
      <stageThreshold>-6.5901601314544678e-01</stageThreshold>
      <weakClassifiers>
        <_>
          <internalNodes>
            0 -1 31 -3.3077350817620754e-03</internalNodes>
          <leafValues>
            7.0370370149612427e-01 -8.0124223232269287e-01</leafValues></_>
        <_>
          <internalNodes>
            0 -1 8 2.2216476500034332e-02</internalNodes>
          <leafValues>
            -9.0622460842132568e-01 6.3121861219406128e-01</leafValues></_>
        <_>
          <internalNodes>
            0 -1 1 1.6753156669437885e-03</internalNodes>
          <leafValues>
            -8.5713934898376465e-01 5.8369451761245728e-01</leafValues></_>
        <_>
          <internalNodes>
            0 -1 34 -2.9311305843293667e-04</internalNodes>
          <leafValues>
            4.6475630998611450e-01 -9.2818349599838257e-01</leafValues></_></weakClassifiers></_>
    <!-- stage 9 -->
    <_>
      <maxWeakCount>3</maxWeakCount>
      <stageThreshold>-7.8696769475936890e-01</stageThreshold>
      <weakClassifiers>
        <_>
          <internalNodes>
            0 -1 6 -9.6569638699293137e-03</internalNodes>
          <leafValues>
            6.9343066215515137e-01 -8.1132078170776367e-01</leafValues></_>
        <_>
          <internalNodes>
            0 -1 35 3.7944458425045013e-02</internalNodes>
          <leafValues>
            -6.7541354894638062e-01 8.6255669593811035e-01</leafValues></_>
        <_>
          <internalNodes>
            0 -1 0 -1.5314905904233456e-02</internalNodes>
          <leafValues>
            6.9976657629013062e-01 -6.7558133602142334e-01</leafValues></_></weakClassifiers></_>
    <!-- stage 10 -->
    <_>
      <maxWeakCount>4</maxWeakCount>
      <stageThreshold>-4.3771582841873169e-01</stageThreshold>
      <weakClassifiers>
        <_>
          <internalNodes>
            0 -1 21 -1.0583811439573765e-02</internalNodes>
          <leafValues>
            8.6666667461395264e-01 -6.5445023775100708e-01</leafValues></_>
        <_>
          <internalNodes>
            0 -1 28 9.1607924550771713e-03</internalNodes>
          <leafValues>
            -7.4312990903854370e-01 6.3412249088287354e-01</leafValues></_>
        <_>
          <internalNodes>
            0 -1 13 2.8947118669748306e-02</internalNodes>
          <leafValues>
            -8.8716155290603638e-01 5.2055609226226807e-01</leafValues></_>
        <_>
          <internalNodes>
            0 -1 15 3.8883513770997524e-03</internalNodes>
          <leafValues>
            -8.8022208213806152e-01 4.6977347135543823e-01</leafValues></_></weakClassifiers></_>
    <!-- stage 11 -->
    <_>
      <maxWeakCount>2</maxWeakCount>
      <stageThreshold>-2.0307457447052002e-01</stageThreshold>
      <weakClassifiers>
        <_>
          <internalNodes>
            0 -1 4 -5.3627200424671173e-02</internalNodes>
          <leafValues>
            6.8992245197296143e-01 -7.3652696609497070e-01</leafValues></_>
        <_>
          <internalNodes>
            0 -1 18 1.4886001590639353e-03</internalNodes>
          <leafValues>
            -8.2994472980499268e-01 5.3345239162445068e-01</leafValues></_></weakClassifiers></_>
    <!-- stage 12 -->
    <_>
      <maxWeakCount>4</maxWeakCount>
      <stageThreshold>-7.1358340978622437e-01</stageThreshold>
      <weakClassifiers>
        <_>
          <internalNodes>
            0 -1 27 1.1493670195341110e-01</internalNodes>
          <leafValues>
            -7.6047903299331665e-01 7.2093021869659424e-01</leafValues></_>
        <_>
          <internalNodes>
            0 -1 7 3.0580613762140274e-02</internalNodes>
          <leafValues>
            -8.0984675884246826e-01 6.2047481536865234e-01</leafValues></_>
        <_>
          <internalNodes>
            0 -1 24 -4.7110099694691598e-04</internalNodes>
          <leafValues>
            4.2059099674224854e-01 -9.3442994356155396e-01</leafValues></_>
        <_>
          <internalNodes>
            0 -1 38 1.4877733774483204e-03</internalNodes>
          <leafValues>
            -1. 4.3615141510963440e-01</leafValues></_></weakClassifiers></_>
    <!-- stage 13 -->
    <_>
      <maxWeakCount>4</maxWeakCount>
      <stageThreshold>-4.3267881870269775e-01</stageThreshold>
      <weakClassifiers>
        <_>
          <internalNodes>
            0 -1 5 -4.4414333999156952e-02</internalNodes>
          <leafValues>
            7.6859503984451294e-01 -7.2571426630020142e-01</leafValues></_>
        <_>
          <internalNodes>
            0 -1 25 1.8510092049837112e-02</internalNodes>
          <leafValues>
            -7.7612024545669556e-01 5.2391147613525391e-01</leafValues></_>
        <_>
          <internalNodes>
            0 -1 32 -5.4571288637816906e-03</internalNodes>
          <leafValues>
            -9.7915542125701904e-01 4.2110660672187805e-01</leafValues></_>
        <_>
          <internalNodes>
            0 -1 22 1.4812166802585125e-02</internalNodes>
          <leafValues>
            -6.5198260545730591e-01 6.6063100099563599e-01</leafValues></_></weakClassifiers></_></stages>
  <features>
    <_>
      <rects>
        <_>
          0 0 12 17 -1.</_>
        <_>
          4 0 4 17 3.</_></rects>
      <tilted>0</tilted></_>
    <_>
      <rects>
        <_>
          0 0 14 6 -1.</_>
        <_>
          0 0 7 3 2.</_>
        <_>
          7 3 7 3 2.</_></rects>
      <tilted>0</tilted></_>
    <_>
      <rects>
        <_>
          0 1 4 42 -1.</_>
        <_>
          2 1 2 42 2.</_></rects>
      <tilted>0</tilted></_>
    <_>
      <rects>
        <_>
          0 16 18 34 -1.</_>
        <_>
          0 16 9 17 2.</_>
        <_>
          9 33 9 17 2.</_></rects>
      <tilted>0</tilted></_>
    <_>
      <rects>
        <_>
          0 35 18 11 -1.</_>
        <_>
          9 35 9 11 2.</_></rects>
      <tilted>0</tilted></_>
    <_>
      <rects>
        <_>
          0 36 34 6 -1.</_>
        <_>
          17 36 17 6 2.</_></rects>
      <tilted>0</tilted></_>
    <_>
      <rects>
        <_>
          0 48 20 2 -1.</_>
        <_>
          10 48 10 2 2.</_></rects>
      <tilted>0</tilted></_>
    <_>
      <rects>
        <_>
          1 14 20 14 -1.</_>
        <_>
          1 21 20 7 2.</_></rects>
      <tilted>0</tilted></_>
    <_>
      <rects>
        <_>
          1 18 48 8 -1.</_>
        <_>
          1 22 48 4 2.</_></rects>
      <tilted>0</tilted></_>
    <_>
      <rects>
        <_>
          1 21 22 28 -1.</_>
        <_>
          1 21 11 14 2.</_>
        <_>
          12 35 11 14 2.</_></rects>
      <tilted>0</tilted></_>
    <_>
      <rects>
        <_>
          2 4 2 44 -1.</_>
        <_>
          2 26 2 22 2.</_></rects>
      <tilted>0</tilted></_>
    <_>
      <rects>
        <_>
          2 14 4 36 -1.</_>
        <_>
          2 32 4 18 2.</_></rects>
      <tilted>0</tilted></_>
    <_>
      <rects>
        <_>
          2 17 28 26 -1.</_>
        <_>
          2 17 14 13 2.</_>
        <_>
          16 30 14 13 2.</_></rects>
      <tilted>0</tilted></_>
    <_>
      <rects>
        <_>
          3 1 22 26 -1.</_>
        <_>
          14 1 11 26 2.</_></rects>
      <tilted>0</tilted></_>
    <_>
      <rects>
        <_>
          3 10 8 40 -1.</_>
        <_>
          3 10 4 20 2.</_>
        <_>
          7 30 4 20 2.</_></rects>
      <tilted>0</tilted></_>
    <_>
      <rects>
        <_>
          4 35 44 12 -1.</_>
        <_>
          4 41 44 6 2.</_></rects>
      <tilted>0</tilted></_>
    <_>
      <rects>
        <_>
          5 10 4 40 -1.</_>
        <_>
          5 10 2 20 2.</_>
        <_>
          7 30 2 20 2.</_></rects>
      <tilted>0</tilted></_>
    <_>
      <rects>
        <_>
          6 17 34 12 -1.</_>
        <_>
          6 23 34 6 2.</_></rects>
      <tilted>0</tilted></_>
    <_>
      <rects>
        <_>
          7 19 8 14 -1.</_>
        <_>
          7 19 4 7 2.</_>
        <_>
          11 26 4 7 2.</_></rects>
      <tilted>0</tilted></_>
    <_>
      <rects>
        <_>
          8 4 14 22 -1.</_>
        <_>
          8 4 7 11 2.</_>
        <_>
          15 15 7 11 2.</_></rects>
      <tilted>0</tilted></_>
    <_>
      <rects>
        <_>
          9 31 33 3 -1.</_>
        <_>
          20 31 11 3 3.</_></rects>
      <tilted>0</tilted></_>
    <_>
      <rects>
        <_>
          10 11 27 4 -1.</_>
        <_>
          10 13 27 2 2.</_></rects>
      <tilted>0</tilted></_>
    <_>
      <rects>
        <_>
          12 16 6 14 -1.</_>
        <_>
          12 23 6 7 2.</_></rects>
      <tilted>0</tilted></_>
    <_>
      <rects>
        <_>
          15 11 21 11 -1.</_>
        <_>
          22 11 7 11 3.</_></rects>
      <tilted>0</tilted></_>
    <_>
      <rects>
        <_>
          17 25 9 4 -1.</_>
        <_>
          20 25 3 4 3.</_></rects>
      <tilted>0</tilted></_>
    <_>
      <rects>
        <_>
          18 19 32 8 -1.</_>
        <_>
          18 23 32 4 2.</_></rects>
      <tilted>0</tilted></_>
    <_>
      <rects>
        <_>
          19 14 12 20 -1.</_>
        <_>
          23 14 4 20 3.</_></rects>
      <tilted>0</tilted></_>
    <_>
      <rects>
        <_>
          22 5 28 42 -1.</_>
        <_>
          22 5 14 21 2.</_>
        <_>
          36 26 14 21 2.</_></rects>
      <tilted>0</tilted></_>
    <_>
      <rects>
        <_>
          22 16 6 20 -1.</_>
        <_>
          24 16 2 20 3.</_></rects>
      <tilted>0</tilted></_>
    <_>
      <rects>
        <_>
          24 6 8 12 -1.</_>
        <_>
          24 6 4 6 2.</_>
        <_>
          28 12 4 6 2.</_></rects>
      <tilted>0</tilted></_>
    <_>
      <rects>
        <_>
          24 23 9 4 -1.</_>
        <_>
          27 23 3 4 3.</_></rects>
      <tilted>0</tilted></_>
    <_>
      <rects>
        <_>
          27 10 20 1 -1.</_>
        <_>
          37 10 10 1 2.</_></rects>
      <tilted>0</tilted></_>
    <_>
      <rects>
        <_>
          29 38 18 12 -1.</_>
        <_>
          29 42 18 4 3.</_></rects>
      <tilted>0</tilted></_>
    <_>
      <rects>
        <_>
          34 20 14 30 -1.</_>
        <_>
          34 20 7 15 2.</_>
        <_>
          41 35 7 15 2.</_></rects>
      <tilted>0</tilted></_>
    <_>
      <rects>
        <_>
          38 18 4 10 -1.</_>
        <_>
          38 18 2 5 2.</_>
        <_>
          40 23 2 5 2.</_></rects>
      <tilted>0</tilted></_>
    <_>
      <rects>
        <_>
          38 30 12 17 -1.</_>
        <_>
          44 30 6 17 2.</_></rects>
      <tilted>0</tilted></_>
    <_>
      <rects>
        <_>
          39 17 10 32 -1.</_>
        <_>
          39 17 5 16 2.</_>
        <_>
          44 33 5 16 2.</_></rects>
      <tilted>0</tilted></_>
    <_>
      <rects>
        <_>
          41 15 8 10 -1.</_>
        <_>
          41 20 8 5 2.</_></rects>
      <tilted>0</tilted></_>
    <_>
      <rects>
        <_>
          42 8 4 20 -1.</_>
        <_>
          42 18 4 10 2.</_></rects>
      <tilted>0</tilted></_></features></cascade>
</opencv_storage>
